digraph Tree {
node [shape=box, style="filled, rounded", color="black", fontname=helvetica] ;
edge [fontname=helvetica] ;
0 [label="hits_on_fixed_code <= 13.0\ngini = 0.42\nsamples = 3465\nvalue = [2410, 1055]\nclass = Loss", fillcolor="#e581398f"] ;
1 [label="diff_method_calls <= 10.0\ngini = 0.49\nsamples = 2328\nvalue = [1309, 1019]\nclass = Loss", fillcolor="#e5813938"] ;
0 -> 1 [labeldistance=2.5, labelangle=45, headlabel="True"] ;
2 [label="total_method_calls <= 10.5\ngini = 0.44\nsamples = 799\nvalue = [257, 542]\nclass = Gain", fillcolor="#399de586"] ;
1 -> 2 ;
3 [label="egaps_fixed <= 4.5\ngini = 0.47\nsamples = 685\nvalue = [257, 428]\nclass = Gain", fillcolor="#399de566"] ;
2 -> 3 ;
4 [label="diff_method_calls <= 7.0\ngini = 0.44\nsamples = 187\nvalue = [127, 60]\nclass = Loss", fillcolor="#e5813987"] ;
3 -> 4 ;
5 [label="diff_method_calls <= 4.0\ngini = 0.38\nsamples = 170\nvalue = [126, 44]\nclass = Loss", fillcolor="#e58139a6"] ;
4 -> 5 ;
6 [label="total_method_calls <= 2.5\ngini = 0.04\nsamples = 50\nvalue = [49, 1]\nclass = Loss", fillcolor="#e58139fa"] ;
5 -> 6 ;
7 [label="gini = 0.06\nsamples = 35\nvalue = [34, 1]\nclass = Loss", fillcolor="#e58139f8"] ;
6 -> 7 ;
8 [label="gini = 0.0\nsamples = 15\nvalue = [15, 0]\nclass = Loss", fillcolor="#e58139ff"] ;
6 -> 8 ;
9 [label="gini = 0.46\nsamples = 120\nvalue = [77, 43]\nclass = Loss", fillcolor="#e5813971"] ;
5 -> 9 ;
10 [label="gini = 0.11\nsamples = 17\nvalue = [1, 16]\nclass = Gain", fillcolor="#399de5ef"] ;
4 -> 10 ;
11 [label="total_method_calls <= 8.5\ngini = 0.39\nsamples = 498\nvalue = [130, 368]\nclass = Gain", fillcolor="#399de5a5"] ;
3 -> 11 ;
12 [label="hits_on_fixed_code <= 10.5\ngini = 0.33\nsamples = 465\nvalue = [97, 368]\nclass = Gain", fillcolor="#399de5bc"] ;
11 -> 12 ;
13 [label="total_method_calls <= 3.5\ngini = 0.23\nsamples = 315\nvalue = [42, 273]\nclass = Gain", fillcolor="#399de5d8"] ;
12 -> 13 ;
14 [label="egaps_fixed <= 7.5\ngini = 0.29\nsamples = 230\nvalue = [41, 189]\nclass = Gain", fillcolor="#399de5c8"] ;
13 -> 14 ;
15 [label="diff_method_calls <= 2.5\ngini = 0.37\nsamples = 161\nvalue = [39, 122]\nclass = Gain", fillcolor="#399de5ad"] ;
14 -> 15 ;
16 [label="gini = 0.15\nsamples = 73\nvalue = [6, 67]\nclass = Gain", fillcolor="#399de5e8"] ;
15 -> 16 ;
17 [label="gini = 0.47\nsamples = 88\nvalue = [33, 55]\nclass = Gain", fillcolor="#399de566"] ;
15 -> 17 ;
18 [label="diff_method_calls <= 2.0\ngini = 0.06\nsamples = 69\nvalue = [2, 67]\nclass = Gain", fillcolor="#399de5f7"] ;
14 -> 18 ;
19 [label="gini = 0.11\nsamples = 17\nvalue = [1, 16]\nclass = Gain", fillcolor="#399de5ef"] ;
18 -> 19 ;
20 [label="gini = 0.04\nsamples = 52\nvalue = [1, 51]\nclass = Gain", fillcolor="#399de5fa"] ;
18 -> 20 ;
21 [label="total_method_calls <= 6.0\ngini = 0.02\nsamples = 85\nvalue = [1, 84]\nclass = Gain", fillcolor="#399de5fc"] ;
13 -> 21 ;
22 [label="gini = 0.1\nsamples = 18\nvalue = [1, 17]\nclass = Gain", fillcolor="#399de5f0"] ;
21 -> 22 ;
23 [label="gini = 0.0\nsamples = 67\nvalue = [0, 67]\nclass = Gain", fillcolor="#399de5ff"] ;
21 -> 23 ;
24 [label="diff_method_calls <= 2.5\ngini = 0.46\nsamples = 150\nvalue = [55, 95]\nclass = Gain", fillcolor="#399de56b"] ;
12 -> 24 ;
25 [label="total_method_calls <= 3.0\ngini = 0.5\nsamples = 110\nvalue = [55, 55]\nclass = Loss", fillcolor="#e5813900"] ;
24 -> 25 ;
26 [label="gini = 0.46\nsamples = 55\nvalue = [20, 35]\nclass = Gain", fillcolor="#399de56d"] ;
25 -> 26 ;
27 [label="gini = 0.46\nsamples = 55\nvalue = [35, 20]\nclass = Loss", fillcolor="#e581396d"] ;
25 -> 27 ;
28 [label="gini = 0.0\nsamples = 40\nvalue = [0, 40]\nclass = Gain", fillcolor="#399de5ff"] ;
24 -> 28 ;
29 [label="gini = 0.0\nsamples = 33\nvalue = [33, 0]\nclass = Loss", fillcolor="#e58139ff"] ;
11 -> 29 ;
30 [label="gini = 0.0\nsamples = 114\nvalue = [0, 114]\nclass = Gain", fillcolor="#399de5ff"] ;
2 -> 30 ;
31 [label="total_method_calls <= 31.5\ngini = 0.43\nsamples = 1529\nvalue = [1052, 477]\nclass = Loss", fillcolor="#e581398b"] ;
1 -> 31 ;
32 [label="diff_method_calls <= 14.5\ngini = 0.19\nsamples = 424\nvalue = [379, 45]\nclass = Loss", fillcolor="#e58139e1"] ;
31 -> 32 ;
33 [label="egaps_fixed <= 7.5\ngini = 0.31\nsamples = 209\nvalue = [169, 40]\nclass = Loss", fillcolor="#e58139c3"] ;
32 -> 33 ;
34 [label="total_method_calls <= 15.5\ngini = 0.49\nsamples = 53\nvalue = [23, 30]\nclass = Gain", fillcolor="#399de53b"] ;
33 -> 34 ;
35 [label="gini = 0.44\nsamples = 34\nvalue = [23, 11]\nclass = Loss", fillcolor="#e5813985"] ;
34 -> 35 ;
36 [label="gini = 0.0\nsamples = 19\nvalue = [0, 19]\nclass = Gain", fillcolor="#399de5ff"] ;
34 -> 36 ;
37 [label="total_method_calls <= 18.0\ngini = 0.12\nsamples = 156\nvalue = [146, 10]\nclass = Loss", fillcolor="#e58139ee"] ;
33 -> 37 ;
38 [label="gini = 0.0\nsamples = 85\nvalue = [85, 0]\nclass = Loss", fillcolor="#e58139ff"] ;
37 -> 38 ;
39 [label="gini = 0.24\nsamples = 71\nvalue = [61, 10]\nclass = Loss", fillcolor="#e58139d5"] ;
37 -> 39 ;
40 [label="egaps_fixed <= 9.0\ngini = 0.05\nsamples = 215\nvalue = [210, 5]\nclass = Loss", fillcolor="#e58139f9"] ;
32 -> 40 ;
41 [label="diff_method_calls <= 15.5\ngini = 0.01\nsamples = 151\nvalue = [150, 1]\nclass = Loss", fillcolor="#e58139fd"] ;
40 -> 41 ;
42 [label="gini = 0.12\nsamples = 16\nvalue = [15, 1]\nclass = Loss", fillcolor="#e58139ee"] ;
41 -> 42 ;
43 [label="gini = 0.0\nsamples = 135\nvalue = [135, 0]\nclass = Loss", fillcolor="#e58139ff"] ;
41 -> 43 ;
44 [label="total_method_calls <= 18.0\ngini = 0.12\nsamples = 64\nvalue = [60, 4]\nclass = Loss", fillcolor="#e58139ee"] ;
40 -> 44 ;
45 [label="gini = 0.0\nsamples = 17\nvalue = [17, 0]\nclass = Loss", fillcolor="#e58139ff"] ;
44 -> 45 ;
46 [label="gini = 0.16\nsamples = 47\nvalue = [43, 4]\nclass = Loss", fillcolor="#e58139e7"] ;
44 -> 46 ;
47 [label="total_method_calls <= 133.5\ngini = 0.48\nsamples = 1105\nvalue = [673, 432]\nclass = Loss", fillcolor="#e581395b"] ;
31 -> 47 ;
48 [label="diff_method_calls <= 32.5\ngini = 0.49\nsamples = 590\nvalue = [254, 336]\nclass = Gain", fillcolor="#399de53e"] ;
47 -> 48 ;
49 [label="diff_method_calls <= 19.0\ngini = 0.45\nsamples = 315\nvalue = [208, 107]\nclass = Loss", fillcolor="#e581397c"] ;
48 -> 49 ;
50 [label="total_method_calls <= 76.0\ngini = 0.44\nsamples = 133\nvalue = [44, 89]\nclass = Gain", fillcolor="#399de581"] ;
49 -> 50 ;
51 [label="diff_method_calls <= 16.0\ngini = 0.5\nsamples = 94\nvalue = [44, 50]\nclass = Gain", fillcolor="#399de51f"] ;
50 -> 51 ;
52 [label="total_method_calls <= 42.0\ngini = 0.48\nsamples = 75\nvalue = [44, 31]\nclass = Loss", fillcolor="#e581394b"] ;
51 -> 52 ;
53 [label="diff_method_calls <= 13.0\ngini = 0.38\nsamples = 40\nvalue = [30, 10]\nclass = Loss", fillcolor="#e58139aa"] ;
52 -> 53 ;
54 [label="gini = 0.5\nsamples = 21\nvalue = [11, 10]\nclass = Loss", fillcolor="#e5813917"] ;
53 -> 54 ;
55 [label="gini = 0.0\nsamples = 19\nvalue = [19, 0]\nclass = Loss", fillcolor="#e58139ff"] ;
53 -> 55 ;
56 [label="total_method_calls <= 54.5\ngini = 0.48\nsamples = 35\nvalue = [14, 21]\nclass = Gain", fillcolor="#399de555"] ;
52 -> 56 ;
57 [label="gini = 0.0\nsamples = 16\nvalue = [0, 16]\nclass = Gain", fillcolor="#399de5ff"] ;
56 -> 57 ;
58 [label="gini = 0.39\nsamples = 19\nvalue = [14, 5]\nclass = Loss", fillcolor="#e58139a4"] ;
56 -> 58 ;
59 [label="gini = 0.0\nsamples = 19\nvalue = [0, 19]\nclass = Gain", fillcolor="#399de5ff"] ;
51 -> 59 ;
60 [label="gini = 0.0\nsamples = 39\nvalue = [0, 39]\nclass = Gain", fillcolor="#399de5ff"] ;
50 -> 60 ;
61 [label="total_method_calls <= 46.0\ngini = 0.18\nsamples = 182\nvalue = [164, 18]\nclass = Loss", fillcolor="#e58139e3"] ;
49 -> 61 ;
62 [label="total_method_calls <= 38.0\ngini = 0.48\nsamples = 43\nvalue = [26, 17]\nclass = Loss", fillcolor="#e5813958"] ;
61 -> 62 ;
63 [label="gini = 0.41\nsamples = 24\nvalue = [17, 7]\nclass = Loss", fillcolor="#e5813996"] ;
62 -> 63 ;
64 [label="gini = 0.5\nsamples = 19\nvalue = [9, 10]\nclass = Gain", fillcolor="#399de519"] ;
62 -> 64 ;
65 [label="diff_method_calls <= 31.5\ngini = 0.01\nsamples = 139\nvalue = [138, 1]\nclass = Loss", fillcolor="#e58139fd"] ;
61 -> 65 ;
66 [label="gini = 0.0\nsamples = 105\nvalue = [105, 0]\nclass = Loss", fillcolor="#e58139ff"] ;
65 -> 66 ;
67 [label="total_method_calls <= 84.5\ngini = 0.06\nsamples = 34\nvalue = [33, 1]\nclass = Loss", fillcolor="#e58139f7"] ;
65 -> 67 ;
68 [label="gini = 0.1\nsamples = 18\nvalue = [17, 1]\nclass = Loss", fillcolor="#e58139f0"] ;
67 -> 68 ;
69 [label="gini = 0.0\nsamples = 16\nvalue = [16, 0]\nclass = Loss", fillcolor="#e58139ff"] ;
67 -> 69 ;
70 [label="total_method_calls <= 53.5\ngini = 0.28\nsamples = 275\nvalue = [46, 229]\nclass = Gain", fillcolor="#399de5cc"] ;
48 -> 70 ;
71 [label="gini = 0.0\nsamples = 86\nvalue = [0, 86]\nclass = Gain", fillcolor="#399de5ff"] ;
70 -> 71 ;
72 [label="diff_method_calls <= 41.5\ngini = 0.37\nsamples = 189\nvalue = [46, 143]\nclass = Gain", fillcolor="#399de5ad"] ;
70 -> 72 ;
73 [label="egaps_fixed <= 7.5\ngini = 0.5\nsamples = 55\nvalue = [29, 26]\nclass = Loss", fillcolor="#e581391a"] ;
72 -> 73 ;
74 [label="gini = 0.29\nsamples = 17\nvalue = [14, 3]\nclass = Loss", fillcolor="#e58139c8"] ;
73 -> 74 ;
75 [label="total_method_calls <= 67.5\ngini = 0.48\nsamples = 38\nvalue = [15, 23]\nclass = Gain", fillcolor="#399de559"] ;
73 -> 75 ;
76 [label="gini = 0.38\nsamples = 20\nvalue = [15, 5]\nclass = Loss", fillcolor="#e58139aa"] ;
75 -> 76 ;
77 [label="gini = 0.0\nsamples = 18\nvalue = [0, 18]\nclass = Gain", fillcolor="#399de5ff"] ;
75 -> 77 ;
78 [label="hits_on_fixed_code <= 4.5\ngini = 0.22\nsamples = 134\nvalue = [17, 117]\nclass = Gain", fillcolor="#399de5da"] ;
72 -> 78 ;
79 [label="gini = 0.32\nsamples = 85\nvalue = [17, 68]\nclass = Gain", fillcolor="#399de5bf"] ;
78 -> 79 ;
80 [label="gini = 0.0\nsamples = 49\nvalue = [0, 49]\nclass = Gain", fillcolor="#399de5ff"] ;
78 -> 80 ;
81 [label="total_method_calls <= 376.0\ngini = 0.3\nsamples = 515\nvalue = [419, 96]\nclass = Loss", fillcolor="#e58139c5"] ;
47 -> 81 ;
82 [label="egaps_fixed <= 4.5\ngini = 0.41\nsamples = 316\nvalue = [225, 91]\nclass = Loss", fillcolor="#e5813998"] ;
81 -> 82 ;
83 [label="total_method_calls <= 288.5\ngini = 0.34\nsamples = 88\nvalue = [19, 69]\nclass = Gain", fillcolor="#399de5b9"] ;
82 -> 83 ;
84 [label="total_method_calls <= 262.5\ngini = 0.04\nsamples = 55\nvalue = [1, 54]\nclass = Gain", fillcolor="#399de5fa"] ;
83 -> 84 ;
85 [label="gini = 0.0\nsamples = 38\nvalue = [0, 38]\nclass = Gain", fillcolor="#399de5ff"] ;
84 -> 85 ;
86 [label="gini = 0.11\nsamples = 17\nvalue = [1, 16]\nclass = Gain", fillcolor="#399de5ef"] ;
84 -> 86 ;
87 [label="total_method_calls <= 311.5\ngini = 0.5\nsamples = 33\nvalue = [18, 15]\nclass = Loss", fillcolor="#e581392a"] ;
83 -> 87 ;
88 [label="gini = 0.0\nsamples = 18\nvalue = [18, 0]\nclass = Loss", fillcolor="#e58139ff"] ;
87 -> 88 ;
89 [label="gini = 0.0\nsamples = 15\nvalue = [0, 15]\nclass = Gain", fillcolor="#399de5ff"] ;
87 -> 89 ;
90 [label="total_method_calls <= 152.5\ngini = 0.17\nsamples = 228\nvalue = [206, 22]\nclass = Loss", fillcolor="#e58139e4"] ;
82 -> 90 ;
91 [label="total_method_calls <= 148.5\ngini = 0.45\nsamples = 55\nvalue = [36, 19]\nclass = Loss", fillcolor="#e5813978"] ;
90 -> 91 ;
92 [label="gini = 0.39\nsamples = 37\nvalue = [27, 10]\nclass = Loss", fillcolor="#e58139a1"] ;
91 -> 92 ;
93 [label="gini = 0.5\nsamples = 18\nvalue = [9, 9]\nclass = Loss", fillcolor="#e5813900"] ;
91 -> 93 ;
94 [label="total_method_calls <= 184.0\ngini = 0.03\nsamples = 173\nvalue = [170, 3]\nclass = Loss", fillcolor="#e58139fa"] ;
90 -> 94 ;
95 [label="total_method_calls <= 169.5\ngini = 0.1\nsamples = 39\nvalue = [37, 2]\nclass = Loss", fillcolor="#e58139f1"] ;
94 -> 95 ;
96 [label="gini = 0.0\nsamples = 21\nvalue = [21, 0]\nclass = Loss", fillcolor="#e58139ff"] ;
95 -> 96 ;
97 [label="gini = 0.2\nsamples = 18\nvalue = [16, 2]\nclass = Loss", fillcolor="#e58139df"] ;
95 -> 97 ;
98 [label="diff_method_calls <= 94.5\ngini = 0.01\nsamples = 134\nvalue = [133, 1]\nclass = Loss", fillcolor="#e58139fd"] ;
94 -> 98 ;
99 [label="gini = 0.0\nsamples = 78\nvalue = [78, 0]\nclass = Loss", fillcolor="#e58139ff"] ;
98 -> 99 ;
100 [label="gini = 0.04\nsamples = 56\nvalue = [55, 1]\nclass = Loss", fillcolor="#e58139fa"] ;
98 -> 100 ;
101 [label="total_method_calls <= 496.0\ngini = 0.05\nsamples = 199\nvalue = [194, 5]\nclass = Loss", fillcolor="#e58139f8"] ;
81 -> 101 ;
102 [label="total_method_calls <= 455.5\ngini = 0.16\nsamples = 47\nvalue = [43, 4]\nclass = Loss", fillcolor="#e58139e7"] ;
101 -> 102 ;
103 [label="gini = 0.0\nsamples = 32\nvalue = [32, 0]\nclass = Loss", fillcolor="#e58139ff"] ;
102 -> 103 ;
104 [label="gini = 0.39\nsamples = 15\nvalue = [11, 4]\nclass = Loss", fillcolor="#e58139a2"] ;
102 -> 104 ;
105 [label="total_method_calls <= 908.0\ngini = 0.01\nsamples = 152\nvalue = [151, 1]\nclass = Loss", fillcolor="#e58139fd"] ;
101 -> 105 ;
106 [label="gini = 0.0\nsamples = 73\nvalue = [73, 0]\nclass = Loss", fillcolor="#e58139ff"] ;
105 -> 106 ;
107 [label="total_method_calls <= 1129.5\ngini = 0.02\nsamples = 79\nvalue = [78, 1]\nclass = Loss", fillcolor="#e58139fc"] ;
105 -> 107 ;
108 [label="gini = 0.1\nsamples = 18\nvalue = [17, 1]\nclass = Loss", fillcolor="#e58139f0"] ;
107 -> 108 ;
109 [label="gini = 0.0\nsamples = 61\nvalue = [61, 0]\nclass = Loss", fillcolor="#e58139ff"] ;
107 -> 109 ;
110 [label="hits_on_fixed_code <= 27.0\ngini = 0.06\nsamples = 1137\nvalue = [1101, 36]\nclass = Loss", fillcolor="#e58139f7"] ;
0 -> 110 [labeldistance=2.5, labelangle=-45, headlabel="False"] ;
111 [label="total_method_calls <= 1.0\ngini = 0.0\nsamples = 521\nvalue = [520, 1]\nclass = Loss", fillcolor="#e58139ff"] ;
110 -> 111 ;
112 [label="egaps_fixed <= 16.5\ngini = 0.02\nsamples = 107\nvalue = [106, 1]\nclass = Loss", fillcolor="#e58139fd"] ;
111 -> 112 ;
113 [label="gini = 0.0\nsamples = 19\nvalue = [19, 0]\nclass = Loss", fillcolor="#e58139ff"] ;
112 -> 113 ;
114 [label="gini = 0.02\nsamples = 88\nvalue = [87, 1]\nclass = Loss", fillcolor="#e58139fc"] ;
112 -> 114 ;
115 [label="gini = 0.0\nsamples = 414\nvalue = [414, 0]\nclass = Loss", fillcolor="#e58139ff"] ;
111 -> 115 ;
116 [label="egaps_fixed <= 52.5\ngini = 0.11\nsamples = 616\nvalue = [581, 35]\nclass = Loss", fillcolor="#e58139f0"] ;
110 -> 116 ;
117 [label="diff_method_calls <= 28.0\ngini = 0.24\nsamples = 257\nvalue = [222, 35]\nclass = Loss", fillcolor="#e58139d7"] ;
116 -> 117 ;
118 [label="hits_on_fixed_code <= 43.5\ngini = 0.18\nsamples = 224\nvalue = [202, 22]\nclass = Loss", fillcolor="#e58139e3"] ;
117 -> 118 ;
119 [label="diff_method_calls <= 23.5\ngini = 0.03\nsamples = 140\nvalue = [138, 2]\nclass = Loss", fillcolor="#e58139fb"] ;
118 -> 119 ;
120 [label="total_method_calls <= 1.5\ngini = 0.02\nsamples = 107\nvalue = [106, 1]\nclass = Loss", fillcolor="#e58139fd"] ;
119 -> 120 ;
121 [label="gini = 0.04\nsamples = 49\nvalue = [48, 1]\nclass = Loss", fillcolor="#e58139fa"] ;
120 -> 121 ;
122 [label="gini = 0.0\nsamples = 58\nvalue = [58, 0]\nclass = Loss", fillcolor="#e58139ff"] ;
120 -> 122 ;
123 [label="gini = 0.06\nsamples = 33\nvalue = [32, 1]\nclass = Loss", fillcolor="#e58139f7"] ;
119 -> 123 ;
124 [label="gini = 0.36\nsamples = 84\nvalue = [64, 20]\nclass = Loss", fillcolor="#e58139af"] ;
118 -> 124 ;
125 [label="gini = 0.48\nsamples = 33\nvalue = [20, 13]\nclass = Loss", fillcolor="#e5813959"] ;
117 -> 125 ;
126 [label="gini = 0.0\nsamples = 359\nvalue = [359, 0]\nclass = Loss", fillcolor="#e58139ff"] ;
116 -> 126 ;
}